digraph Tree {
node [shape=box, style="filled, rounded", color="black", fontname="helvetica"] ;
edge [fontname="helvetica"] ;
0 [label=<EXAM SCORE &le; 82.61<br/>squared_error = 0.233<br/>samples = 149<br/>value = 0.37>, fillcolor="#f5d0b6"] ;
1 [label=<DEPARTMENTS &le; 0.507<br/>squared_error = 0.108<br/>samples = 96<br/>value = 0.123>, fillcolor="#fcefe7"] ;
0 -> 1 [labeldistance=2.5, labelangle=45, headlabel="True"] ;
2 [label=<EXAM SCORE &le; 81.535<br/>squared_error = 0.015<br/>samples = 80<br/>value = 0.015>, fillcolor="#fffdfc"] ;
1 -> 2 ;
3 [label=<squared_error = 0.0<br/>samples = 73<br/>value = 0.0>, fillcolor="#ffffff"] ;
2 -> 3 ;
4 [label=<UNIVERSITIES &le; 0.41<br/>squared_error = 0.16<br/>samples = 7<br/>value = 0.2>, fillcolor="#fae6d7"] ;
2 -> 4 ;
5 [label=<squared_error = 0.0<br/>samples = 5<br/>value = 0.0>, fillcolor="#ffffff"] ;
4 -> 5 ;
6 [label=<squared_error = 0.0<br/>samples = 2<br/>value = 1.0>, fillcolor="#e58139"] ;
4 -> 6 ;
7 [label=<UNIVERSITIES &le; 0.412<br/>squared_error = 0.24<br/>samples = 16<br/>value = 0.6>, fillcolor="#efb388"] ;
1 -> 7 ;
8 [label=<EXAM SCORE &le; 78.35<br/>squared_error = 0.071<br/>samples = 9<br/>value = 0.077>, fillcolor="#fdf5f0"] ;
7 -> 8 ;
9 [label=<squared_error = 0.0<br/>samples = 7<br/>value = 0.0>, fillcolor="#ffffff"] ;
8 -> 9 ;
10 [label=<FACULTIES &le; 0.509<br/>squared_error = 0.25<br/>samples = 2<br/>value = 0.5>, fillcolor="#f2c09c"] ;
8 -> 10 ;
11 [label=<squared_error = 0.0<br/>samples = 1<br/>value = 0.0>, fillcolor="#ffffff"] ;
10 -> 11 ;
12 [label=<squared_error = 0.0<br/>samples = 1<br/>value = 1.0>, fillcolor="#e58139"] ;
10 -> 12 ;
13 [label=<squared_error = 0.0<br/>samples = 7<br/>value = 1.0>, fillcolor="#e58139"] ;
7 -> 13 ;
14 [label=<EXAM SCORE &le; 84.93<br/>squared_error = 0.094<br/>samples = 53<br/>value = 0.895>, fillcolor="#e88e4e"] ;
0 -> 14 [labeldistance=2.5, labelangle=-45, headlabel="False"] ;
15 [label=<DEPARTMENTS &le; 0.442<br/>squared_error = 0.222<br/>samples = 16<br/>value = 0.667>, fillcolor="#eeab7b"] ;
14 -> 15 ;
16 [label=<DEPARTMENTS &le; 0.391<br/>squared_error = 0.243<br/>samples = 8<br/>value = 0.417>, fillcolor="#f4caac"] ;
15 -> 16 ;
17 [label=<squared_error = 0.0<br/>samples = 3<br/>value = 1.0>, fillcolor="#e58139"] ;
16 -> 17 ;
18 [label=<EXAM SCORE &le; 83.4<br/>squared_error = 0.173<br/>samples = 5<br/>value = 0.222>, fillcolor="#f9e3d3"] ;
16 -> 18 ;
19 [label=<squared_error = 0.0<br/>samples = 2<br/>value = 0.0>, fillcolor="#ffffff"] ;
18 -> 19 ;
20 [label=<DEPARTMENTS &le; 0.415<br/>squared_error = 0.25<br/>samples = 3<br/>value = 0.5>, fillcolor="#f2c09c"] ;
18 -> 20 ;
21 [label=<squared_error = 0.0<br/>samples = 1<br/>value = 1.0>, fillcolor="#e58139"] ;
20 -> 21 ;
22 [label=<squared_error = 0.0<br/>samples = 2<br/>value = 0.0>, fillcolor="#ffffff"] ;
20 -> 22 ;
23 [label=<UNIVERSITIES &le; 0.396<br/>squared_error = 0.076<br/>samples = 8<br/>value = 0.917>, fillcolor="#e78c4a"] ;
15 -> 23 ;
24 [label=<squared_error = 0.0<br/>samples = 1<br/>value = 0.0>, fillcolor="#ffffff"] ;
23 -> 24 ;
25 [label=<squared_error = 0.0<br/>samples = 7<br/>value = 1.0>, fillcolor="#e58139"] ;
23 -> 25 ;
26 [label=<squared_error = 0.0<br/>samples = 37<br/>value = 1.0>, fillcolor="#e58139"] ;
14 -> 26 ;
}